<?xml version="1.0"?>
<opencv_storage>
<stage7>
  <maxWeakCount>8</maxWeakCount>
  <stageThreshold>-1.1844248771667480e+00</stageThreshold>
  <weakClassifiers>
    <_>
      <internalNodes>
        0 -1 7998943 -6.0700667745550163e-06</internalNodes>
      <leafValues>
        2.4110671877861023e-01 -6.5182185173034668e-01</leafValues></_>
    <_>
      <internalNodes>
        0 -1 4230612 -1.1138465255498886e-02</internalNodes>
      <leafValues>
        4.1799828410148621e-01 -5.1103419065475464e-01</leafValues></_>
    <_>
      <internalNodes>
        0 -1 4591795 6.7949672484246548e-06</internalNodes>
      <leafValues>
        -6.3193196058273315e-01 3.8174957036972046e-01</leafValues></_>
    <_>
      <internalNodes>
        0 -1 5521841 -5.6347180361626670e-06</internalNodes>
      <leafValues>
        3.6443564295768738e-01 -6.6266512870788574e-01</leafValues></_>
    <_>
      <internalNodes>
        0 -1 6606905 -3.9789441507309675e-04</internalNodes>
      <leafValues>
        -7.5882107019424438e-01 3.1543952226638794e-01</leafValues></_>
    <_>
      <internalNodes>
        0 -1 7045566 6.2274076044559479e-03</internalNodes>
      <leafValues>
        -6.9776672124862671e-01 3.1377857923507690e-01</leafValues></_>
    <_>
      <internalNodes>
        0 -1 8157959 -5.5570362746948376e-06</internalNodes>
      <leafValues>
        3.6942631006240845e-01 -5.7310217618942261e-01</leafValues></_>
    <_>
      <internalNodes>
        0 -1 562952 8.1737153232097626e-03</internalNodes>
      <leafValues>
        3.4845888614654541e-01 -7.0179647207260132e-01</leafValues></_></weakClassifiers></stage7>
</opencv_storage>
