<?xml version="1.0"?>
<opencv_storage>
<stage8>
  <maxWeakCount>5</maxWeakCount>
  <stageThreshold>-1.3905268907546997e+00</stageThreshold>
  <weakClassifiers>
    <_>
      <internalNodes>
        0 -1 8697413 -6.9478010118473321e-06</internalNodes>
      <leafValues>
        1.9439579546451569e-01 -7.2494173049926758e-01</leafValues></_>
    <_>
      <internalNodes>
        0 -1 4867699 4.6114600991131738e-06</internalNodes>
      <leafValues>
        -5.9560859203338623e-01 3.4365108609199524e-01</leafValues></_>
    <_>
      <internalNodes>
        0 -1 2979171 5.0352014113741461e-06</internalNodes>
      <leafValues>
        -6.3652330636978149e-01 3.2874071598052979e-01</leafValues></_>
    <_>
      <internalNodes>
        0 -1 5230737 1.4731739065609872e-04</internalNodes>
      <leafValues>
        2.3689813911914825e-01 -8.9081501960754395e-01</leafValues></_>
    <_>
      <internalNodes>
        0 -1 1995487 2.6028501451946795e-06</internalNodes>
      <leafValues>
        -6.0961115360260010e-01 2.8857651352882385e-01</leafValues></_></weakClassifiers></stage8>
</opencv_storage>
