<?xml version="1.0"?>
<opencv_storage>
<stage4>
  <maxWeakCount>5</maxWeakCount>
  <stageThreshold>-1.1355870962142944e+00</stageThreshold>
  <weakClassifiers>
    <_>
      <internalNodes>
        0 -1 9140624 -2.9917664505774155e-06</internalNodes>
      <leafValues>
        3.3333334326744080e-01 -7.6180696487426758e-01</leafValues></_>
    <_>
      <internalNodes>
        0 -1 1067935 6.1829814512748271e-06</internalNodes>
      <leafValues>
        -5.9546029567718506e-01 4.8764491081237793e-01</leafValues></_>
    <_>
      <internalNodes>
        0 -1 9701044 -6.0624061006819829e-06</internalNodes>
      <leafValues>
        4.2811727523803711e-01 -6.6577136516571045e-01</leafValues></_>
    <_>
      <internalNodes>
        0 -1 3430824 -6.5454032665002160e-06</internalNodes>
      <leafValues>
        4.7748869657516479e-01 -5.9348833560943604e-01</leafValues></_>
    <_>
      <internalNodes>
        0 -1 1302137 -1.9041805353481323e-04</internalNodes>
      <leafValues>
        4.7203913331031799e-01 -6.7314237356185913e-01</leafValues></_></weakClassifiers></stage4>
</opencv_storage>
