<?xml version="1.0"?>
<opencv_storage>
<stage17>
  <maxWeakCount>10</maxWeakCount>
  <stageThreshold>-9.4338536262512207e-01</stageThreshold>
  <weakClassifiers>
    <_>
      <internalNodes>
        0 -1 241557 -9.3453098088502884e-03</internalNodes>
      <leafValues>
        3.9130434393882751e-01 -4.8082596063613892e-01</leafValues></_>
    <_>
      <internalNodes>
        0 -1 3639186 2.7028595468436833e-06</internalNodes>
      <leafValues>
        -5.5051165819168091e-01 3.0532547831535339e-01</leafValues></_>
    <_>
      <internalNodes>
        0 -1 5720278 1.2662833556532860e-02</internalNodes>
      <leafValues>
        -3.5797160863876343e-01 4.0595439076423645e-01</leafValues></_>
    <_>
      <internalNodes>
        0 -1 1281180 7.5081787072122097e-03</internalNodes>
      <leafValues>
        2.3471608757972717e-01 -6.9992947578430176e-01</leafValues></_>
    <_>
      <internalNodes>
        0 -1 5704620 -3.8014386518625543e-05</internalNodes>
      <leafValues>
        3.5465049743652344e-01 -4.3567290902137756e-01</leafValues></_>
    <_>
      <internalNodes>
        0 -1 6585539 -1.2377457096590661e-05</internalNodes>
      <leafValues>
        3.4805369377136230e-01 -4.3429264426231384e-01</leafValues></_>
    <_>
      <internalNodes>
        0 -1 5119961 -1.3683795928955078e-02</internalNodes>
      <leafValues>
        6.6179877519607544e-01 -2.1381083130836487e-01</leafValues></_>
    <_>
      <internalNodes>
        0 -1 8704778 -2.2835552954347804e-05</internalNodes>
      <leafValues>
        -7.8472453355789185e-01 2.4429571628570557e-01</leafValues></_>
    <_>
      <internalNodes>
        0 -1 1312288 5.0518726930022240e-03</internalNodes>
      <leafValues>
        -4.9867701530456543e-01 3.4356209635734558e-01</leafValues></_>
    <_>
      <internalNodes>
        0 -1 6726239 -3.0953697860240936e-02</internalNodes>
      <leafValues>
        -9.7218173742294312e-01 1.6347691416740417e-01</leafValues></_></weakClassifiers></stage17>
</opencv_storage>
