<?xml version="1.0"?>
<opencv_storage>
<stage19>
  <maxWeakCount>10</maxWeakCount>
  <stageThreshold>-9.6618086099624634e-01</stageThreshold>
  <weakClassifiers>
    <_>
      <internalNodes>
        0 -1 5249377 -6.1082273532520048e-06</internalNodes>
      <leafValues>
        5.5384613573551178e-02 -6.7428570985794067e-01</leafValues></_>
    <_>
      <internalNodes>
        0 -1 2948328 1.0392485186457634e-02</internalNodes>
      <leafValues>
        -3.5071241855621338e-01 3.9868241548538208e-01</leafValues></_>
    <_>
      <internalNodes>
        0 -1 1940813 -3.3560148440301418e-03</internalNodes>
      <leafValues>
        3.0038601160049438e-01 -4.9939978122711182e-01</leafValues></_>
    <_>
      <internalNodes>
        0 -1 3939964 6.1628385446965694e-04</internalNodes>
      <leafValues>
        2.1391846239566803e-01 -7.1370083093643188e-01</leafValues></_>
    <_>
      <internalNodes>
        0 -1 3562105 4.8339433968067169e-02</internalNodes>
      <leafValues>
        1.5282441675662994e-01 -8.1881833076477051e-01</leafValues></_>
    <_>
      <internalNodes>
        0 -1 5432492 2.3048506118357182e-03</internalNodes>
      <leafValues>
        -3.2560732960700989e-01 4.7346153855323792e-01</leafValues></_>
    <_>
      <internalNodes>
        0 -1 8702697 -1.1518529936438426e-04</internalNodes>
      <leafValues>
        -7.6929420232772827e-01 1.6832654178142548e-01</leafValues></_>
    <_>
      <internalNodes>
        0 -1 33883 2.1263349801301956e-02</internalNodes>
      <leafValues>
        -4.8116400837898254e-01 3.2745385169982910e-01</leafValues></_>
    <_>
      <internalNodes>
        0 -1 5543960 -4.9913537623069715e-06</internalNodes>
      <leafValues>
        2.5592881441116333e-01 -5.9150695800781250e-01</leafValues></_>
    <_>
      <internalNodes>
        0 -1 1641578 6.2713625084143132e-06</internalNodes>
      <leafValues>
        -6.0421514511108398e-01 2.4291050434112549e-01</leafValues></_></weakClassifiers></stage19>
</opencv_storage>
